{"w1":{"0":[[-0.9685093269,0.2864638879,1.0695747037,-0.3906265984,-0.5353874901],[-1.5135682563,1.5184172978,-0.4185471805,-0.5365166145,-0.8082464555],[-1.3065489668,-1.1596619725,0.9624483264,0.1417312147,-0.2030198036],[-0.7938146287,-3.884569233,0.4089819405,-0.2497476622,-0.1100322412]]},"w2":{"0":[[-0.9207346048,-1.2880993247,-0.1009381142,-0.3941908225],[-3.8412243963,8.9311496604,6.1441893253,-0.9707438647],[0.3295907228,-0.1080925826,-2.8510329804,-1.5717325855],[-1.4895980846,0.4540365105,-1.1576971815,0.7520457036],[0.0068550142,0.6821806078,-0.9066924377,-0.3204466592]]},"w3":{"0":[[3.9980789815,-3.7508355673,5.1594145754],[-6.6322166925,5.825124131,-0.3117894661],[-0.3832089136,1.200537244,-7.1461789865],[-0.2522996226,1.4631415876,-0.9717882647]]},"w4":{"0":[[0.7639334955,7.1683334144],[-2.366448888,-7.2754434567],[9.6946009437,3.440203664]]},"w5":{"0":[[7.0131345575],[9.4224343813]]},"b1":{"0":[-1.1337046074,4.2632295678,0.4300440033,-0.1552194689,-0.5567796499]},"b2":{"0":[2.5091394477,-1.0897453917,-2.8440631494,-2.0636054868]},"b3":{"0":[-0.3410843724,0.4842887396,2.45526586]},"b4":{"0":[-1.1912769221,-4.5439252392]},"b5":{"0":[-6.9643434051]},"loss":{"0":0.0000003606}}