{"w1":{"0":[[1.0174004246,2.2955152188,-0.716875911,-0.7314881594,-0.9333557862],[0.5067199664,3.4172849044,-1.1380672947,-1.0484848126,-0.9464576735],[1.3367704814,-5.8003355596,2.3664966902,3.0166947758,-0.1228615066],[-0.1705793143,-6.4897204749,0.9728981966,0.5944239725,-1.2932024455]]},"w2":{"0":[[0.2092405167,-0.9100051743,-0.2516154037,0.455746233],[0.5351442024,9.0699743538,1.2313958549,-0.5890606225],[-3.1619455499,-0.4803346506,0.6280842307,-0.8862832093],[-3.1202642752,-0.5591692794,1.2220982378,-1.7523408785],[-0.5631244545,-2.3135123542,0.7431984291,1.009379521]]},"w3":{"0":[[2.1489083978,2.8876581416,-2.2328468349],[0.0665358741,-0.0763266554,-6.0693306926],[-0.8844781758,-2.1670637246,1.5939346863],[0.3488162861,1.7853746355,-0.1018620543]]},"w4":{"0":[[-1.7235290351,1.6895532923],[-3.2528444391,2.481405487],[2.9768198199,-4.8252437497]]},"w5":{"0":[[6.5886269522],[-7.3447629068]]},"b1":{"0":[-0.5120519763,14.4315276818,0.5122327963,-0.3660811792,1.1075808504]},"b2":{"0":[0.9520843896,-0.7573739287,-1.0114094473,0.5469972655]},"b3":{"0":[-1.315296872,-0.6856359542,0.2473647535]},"b4":{"0":[1.3863378324,0.7400524209]},"b5":{"0":[0.7817548716]},"loss":{"0":0.0000061656}}